digraph Tree {
node [shape=box] ;
0 [label="X[1] <= 3.05\ngini = 0.493\nsamples = 70\nvalue = [39, 31]"] ;
1 [label="X[0] <= 4.85\ngini = 0.298\nsamples = 33\nvalue = [6, 27]"] ;
0 -> 1 [labeldistance=2.5, labelangle=45, headlabel="True"] ;
2 [label="gini = 0.0\nsamples = 6\nvalue = [6, 0]"] ;
1 -> 2 ;
3 [label="gini = 0.0\nsamples = 27\nvalue = [0, 27]"] ;
1 -> 3 ;
4 [label="X[0] <= 5.85\ngini = 0.193\nsamples = 37\nvalue = [33, 4]"] ;
0 -> 4 [labeldistance=2.5, labelangle=-45, headlabel="False"] ;
5 [label="gini = 0.0\nsamples = 33\nvalue = [33, 0]"] ;
4 -> 5 ;
6 [label="gini = 0.0\nsamples = 4\nvalue = [0, 4]"] ;
4 -> 6 ;
}